digraph Tree {
node [shape=box, style="filled, rounded", color="black", fontname=helvetica] ;
edge [fontname=helvetica] ;
0 [label="Differentiation <= 1.5\ngini = 0.352\nsamples = 1510\nvalue = [546, 1849]", fillcolor="#399de5b4"] ;
1 [label="Stage <= 2.5\ngini = 0.422\nsamples = 595\nvalue = [285, 656]", fillcolor="#399de590"] ;
0 -> 1 [labeldistance=2.5, labelangle=45, headlabel="True"] ;
2 [label="Diagnosis <= 3.5\ngini = 0.291\nsamples = 369\nvalue = [101, 471]", fillcolor="#399de5c8"] ;
1 -> 2 ;
3 [label="Radiotherapy <= 0.5\ngini = 0.333\nsamples = 190\nvalue = [62, 232]", fillcolor="#399de5bb"] ;
2 -> 3 ;
4 [label="Marital Status <= 0.5\ngini = 0.379\nsamples = 81\nvalue = [31, 91]", fillcolor="#399de5a8"] ;
3 -> 4 ;
5 [label="gini = 0.083\nsamples = 16\nvalue = [1, 22]", fillcolor="#399de5f3"] ;
4 -> 5 ;
6 [label="gini = 0.422\nsamples = 65\nvalue = [30, 69]", fillcolor="#399de590"] ;
4 -> 6 ;
7 [label="ER Status <= 1.5\ngini = 0.295\nsamples = 109\nvalue = [31, 141]", fillcolor="#399de5c7"] ;
3 -> 7 ;
8 [label="gini = 0.406\nsamples = 43\nvalue = [19, 48]", fillcolor="#399de59a"] ;
7 -> 8 ;
9 [label="gini = 0.202\nsamples = 66\nvalue = [12, 93]", fillcolor="#399de5de"] ;
7 -> 9 ;
10 [label="Menopause Status <= 2.5\ngini = 0.241\nsamples = 179\nvalue = [39, 239]", fillcolor="#399de5d5"] ;
2 -> 10 ;
11 [label="Radiotherapy <= 0.5\ngini = 0.194\nsamples = 157\nvalue = [26, 213]", fillcolor="#399de5e0"] ;
10 -> 11 ;
12 [label="gini = 0.293\nsamples = 73\nvalue = [20, 92]", fillcolor="#399de5c8"] ;
11 -> 12 ;
13 [label="gini = 0.09\nsamples = 84\nvalue = [6, 121]", fillcolor="#399de5f2"] ;
11 -> 13 ;
14 [label="Axillary Dissection <= 1.5\ngini = 0.444\nsamples = 22\nvalue = [13, 26]", fillcolor="#399de57f"] ;
10 -> 14 ;
15 [label="gini = 0.456\nsamples = 20\nvalue = [13, 24]", fillcolor="#399de575"] ;
14 -> 15 ;
16 [label="gini = 0.0\nsamples = 2\nvalue = [0, 2]", fillcolor="#399de5ff"] ;
14 -> 16 ;
17 [label="Stage <= 3.5\ngini = 0.5\nsamples = 226\nvalue = [184, 185]", fillcolor="#399de501"] ;
1 -> 17 ;
18 [label="Pri Rx <= 3.5\ngini = 0.493\nsamples = 188\nvalue = [134, 171]", fillcolor="#399de537"] ;
17 -> 18 ;
19 [label="Location <= 1.5\ngini = 0.494\nsamples = 187\nvalue = [134, 168]", fillcolor="#399de534"] ;
18 -> 19 ;
20 [label="gini = 0.495\nsamples = 123\nvalue = [106, 87]", fillcolor="#e581392e"] ;
19 -> 20 ;
21 [label="gini = 0.382\nsamples = 64\nvalue = [28, 81]", fillcolor="#399de5a7"] ;
19 -> 21 ;
22 [label="gini = 0.0\nsamples = 1\nvalue = [0, 3]", fillcolor="#399de5ff"] ;
18 -> 22 ;
23 [label="Diagnosis <= 3.0\ngini = 0.342\nsamples = 38\nvalue = [50, 14]", fillcolor="#e58139b8"] ;
17 -> 23 ;
24 [label="Location <= 1.5\ngini = 0.105\nsamples = 12\nvalue = [17, 1]", fillcolor="#e58139f0"] ;
23 -> 24 ;
25 [label="gini = 0.0\nsamples = 9\nvalue = [14, 0]", fillcolor="#e58139ff"] ;
24 -> 25 ;
26 [label="gini = 0.375\nsamples = 3\nvalue = [3, 1]", fillcolor="#e58139aa"] ;
24 -> 26 ;
27 [label="Menopause Status <= 2.5\ngini = 0.405\nsamples = 26\nvalue = [33, 13]", fillcolor="#e581399b"] ;
23 -> 27 ;
28 [label="gini = 0.444\nsamples = 24\nvalue = [26, 13]", fillcolor="#e581397f"] ;
27 -> 28 ;
29 [label="gini = 0.0\nsamples = 2\nvalue = [7, 0]", fillcolor="#e58139ff"] ;
27 -> 29 ;
30 [label="Axillary Dissection <= 2.5\ngini = 0.295\nsamples = 915\nvalue = [261, 1193]", fillcolor="#399de5c7"] ;
0 -> 30 [labeldistance=2.5, labelangle=-45, headlabel="False"] ;
31 [label="Stage <= 2.5\ngini = 0.317\nsamples = 830\nvalue = [261, 1060]", fillcolor="#399de5c0"] ;
30 -> 31 ;
32 [label="Race <= 1.5\ngini = 0.218\nsamples = 624\nvalue = [123, 867]", fillcolor="#399de5db"] ;
31 -> 32 ;
33 [label="Family History <= 0.5\ngini = 0.372\nsamples = 89\nvalue = [37, 113]", fillcolor="#399de5ac"] ;
32 -> 33 ;
34 [label="gini = 0.401\nsamples = 75\nvalue = [35, 91]", fillcolor="#399de59d"] ;
33 -> 34 ;
35 [label="gini = 0.153\nsamples = 14\nvalue = [2, 22]", fillcolor="#399de5e8"] ;
33 -> 35 ;
36 [label="Age at Diagnosis <= 74.5\ngini = 0.184\nsamples = 535\nvalue = [86, 754]", fillcolor="#399de5e2"] ;
32 -> 36 ;
37 [label="gini = 0.164\nsamples = 508\nvalue = [72, 728]", fillcolor="#399de5e6"] ;
36 -> 37 ;
38 [label="gini = 0.455\nsamples = 27\nvalue = [14, 26]", fillcolor="#399de576"] ;
36 -> 38 ;
39 [label="Marital Status <= 0.5\ngini = 0.486\nsamples = 206\nvalue = [138, 193]", fillcolor="#399de549"] ;
31 -> 39 ;
40 [label="Laterality <= 2.5\ngini = 0.341\nsamples = 34\nvalue = [12, 43]", fillcolor="#399de5b8"] ;
39 -> 40 ;
41 [label="gini = 0.452\nsamples = 18\nvalue = [10, 19]", fillcolor="#399de579"] ;
40 -> 41 ;
42 [label="gini = 0.142\nsamples = 16\nvalue = [2, 24]", fillcolor="#399de5ea"] ;
40 -> 42 ;
43 [label="Diagnosis <= 3.0\ngini = 0.496\nsamples = 172\nvalue = [126, 150]", fillcolor="#399de529"] ;
39 -> 43 ;
44 [label="gini = 0.497\nsamples = 71\nvalue = [59, 51]", fillcolor="#e5813923"] ;
43 -> 44 ;
45 [label="gini = 0.481\nsamples = 101\nvalue = [67, 99]", fillcolor="#399de552"] ;
43 -> 45 ;
46 [label="gini = 0.0\nsamples = 85\nvalue = [0, 133]", fillcolor="#399de5ff"] ;
30 -> 46 ;
}