digraph Tree {
node [shape=box, style="filled, rounded", color="black", fontname=helvetica] ;
edge [fontname=helvetica] ;
0 [label="Stage <= 2.5\ngini = 0.359\nsamples = 1514\nvalue = [562, 1833]", fillcolor="#399de5b1"] ;
1 [label="Stage <= 1.5\ngini = 0.234\nsamples = 1048\nvalue = [223, 1428]", fillcolor="#399de5d7"] ;
0 -> 1 [labeldistance=2.5, labelangle=45, headlabel="True"] ;
2 [label="Age at Diagnosis <= 65.5\ngini = 0.174\nsamples = 460\nvalue = [68, 639]", fillcolor="#399de5e4"] ;
1 -> 2 ;
3 [label="Axillary Dissection <= 2.5\ngini = 0.153\nsamples = 386\nvalue = [50, 548]", fillcolor="#399de5e8"] ;
2 -> 3 ;
4 [label="Diagnosis <= 3.0\ngini = 0.184\nsamples = 314\nvalue = [50, 439]", fillcolor="#399de5e2"] ;
3 -> 4 ;
5 [label="gini = 0.267\nsamples = 173\nvalue = [41, 217]", fillcolor="#399de5cf"] ;
4 -> 5 ;
6 [label="gini = 0.075\nsamples = 141\nvalue = [9, 222]", fillcolor="#399de5f5"] ;
4 -> 6 ;
7 [label="gini = 0.0\nsamples = 72\nvalue = [0, 109]", fillcolor="#399de5ff"] ;
3 -> 7 ;
8 [label="ER Status <= 1.5\ngini = 0.276\nsamples = 74\nvalue = [18, 91]", fillcolor="#399de5cd"] ;
2 -> 8 ;
9 [label="Laterality <= 2.5\ngini = 0.221\nsamples = 54\nvalue = [10, 69]", fillcolor="#399de5da"] ;
8 -> 9 ;
10 [label="gini = 0.337\nsamples = 29\nvalue = [9, 33]", fillcolor="#399de5b9"] ;
9 -> 10 ;
11 [label="gini = 0.053\nsamples = 25\nvalue = [1, 36]", fillcolor="#399de5f8"] ;
9 -> 11 ;
12 [label="Laterality <= 2.5\ngini = 0.391\nsamples = 20\nvalue = [8, 22]", fillcolor="#399de5a2"] ;
8 -> 12 ;
13 [label="gini = 0.26\nsamples = 10\nvalue = [2, 11]", fillcolor="#399de5d1"] ;
12 -> 13 ;
14 [label="gini = 0.457\nsamples = 10\nvalue = [6, 11]", fillcolor="#399de574"] ;
12 -> 14 ;
15 [label="Family History <= 0.5\ngini = 0.274\nsamples = 588\nvalue = [155, 789]", fillcolor="#399de5cd"] ;
1 -> 15 ;
16 [label="Race <= 1.5\ngini = 0.284\nsamples = 467\nvalue = [130, 627]", fillcolor="#399de5ca"] ;
15 -> 16 ;
17 [label="Surgery Type <= 1.5\ngini = 0.402\nsamples = 75\nvalue = [36, 93]", fillcolor="#399de59c"] ;
16 -> 17 ;
18 [label="gini = 0.378\nsamples = 49\nvalue = [19, 56]", fillcolor="#399de5a8"] ;
17 -> 18 ;
19 [label="gini = 0.431\nsamples = 26\nvalue = [17, 37]", fillcolor="#399de58a"] ;
17 -> 19 ;
20 [label="Location <= 1.5\ngini = 0.255\nsamples = 392\nvalue = [94, 534]", fillcolor="#399de5d2"] ;
16 -> 20 ;
21 [label="gini = 0.366\nsamples = 173\nvalue = [65, 204]", fillcolor="#399de5ae"] ;
20 -> 21 ;
22 [label="gini = 0.149\nsamples = 219\nvalue = [29, 330]", fillcolor="#399de5e9"] ;
20 -> 22 ;
23 [label="Age at Diagnosis <= 40.5\ngini = 0.232\nsamples = 121\nvalue = [25, 162]", fillcolor="#399de5d8"] ;
15 -> 23 ;
24 [label="Location <= 2.5\ngini = 0.444\nsamples = 13\nvalue = [7, 14]", fillcolor="#399de57f"] ;
23 -> 24 ;
25 [label="gini = 0.498\nsamples = 9\nvalue = [7, 8]", fillcolor="#399de520"] ;
24 -> 25 ;
26 [label="gini = 0.0\nsamples = 4\nvalue = [0, 6]", fillcolor="#399de5ff"] ;
24 -> 26 ;
27 [label="PR Status <= 1.5\ngini = 0.193\nsamples = 108\nvalue = [18, 148]", fillcolor="#399de5e0"] ;
23 -> 27 ;
28 [label="gini = 0.234\nsamples = 63\nvalue = [13, 83]", fillcolor="#399de5d7"] ;
27 -> 28 ;
29 [label="gini = 0.133\nsamples = 45\nvalue = [5, 65]", fillcolor="#399de5eb"] ;
27 -> 29 ;
30 [label="Location <= 1.5\ngini = 0.496\nsamples = 466\nvalue = [339, 405]", fillcolor="#399de52a"] ;
0 -> 30 [labeldistance=2.5, labelangle=-45, headlabel="False"] ;
31 [label="Axillary Dissection <= 2.5\ngini = 0.487\nsamples = 279\nvalue = [257, 185]", fillcolor="#e5813947"] ;
30 -> 31 ;
32 [label="Radiotherapy <= 0.5\ngini = 0.483\nsamples = 275\nvalue = [257, 177]", fillcolor="#e581394f"] ;
31 -> 32 ;
33 [label="Surgery Type <= 1.5\ngini = 0.416\nsamples = 57\nvalue = [62, 26]", fillcolor="#e5813994"] ;
32 -> 33 ;
34 [label="gini = 0.427\nsamples = 55\nvalue = [58, 26]", fillcolor="#e581398d"] ;
33 -> 34 ;
35 [label="gini = 0.0\nsamples = 2\nvalue = [4, 0]", fillcolor="#e58139ff"] ;
33 -> 35 ;
36 [label="Laterality <= 2.5\ngini = 0.492\nsamples = 218\nvalue = [195, 151]", fillcolor="#e581393a"] ;
32 -> 36 ;
37 [label="gini = 0.497\nsamples = 110\nvalue = [82, 95]", fillcolor="#399de523"] ;
36 -> 37 ;
38 [label="gini = 0.443\nsamples = 108\nvalue = [113, 56]", fillcolor="#e5813981"] ;
36 -> 38 ;
39 [label="gini = 0.0\nsamples = 4\nvalue = [0, 8]", fillcolor="#399de5ff"] ;
31 -> 39 ;
40 [label="Age at Diagnosis <= 35.5\ngini = 0.396\nsamples = 187\nvalue = [82, 220]", fillcolor="#399de5a0"] ;
30 -> 40 ;
41 [label="Diagnosis <= 1.5\ngini = 0.497\nsamples = 17\nvalue = [11, 13]", fillcolor="#399de527"] ;
40 -> 41 ;
42 [label="gini = 0.0\nsamples = 3\nvalue = [0, 6]", fillcolor="#399de5ff"] ;
41 -> 42 ;
43 [label="Laterality <= 2.5\ngini = 0.475\nsamples = 14\nvalue = [11, 7]", fillcolor="#e581395d"] ;
41 -> 43 ;
44 [label="gini = 0.444\nsamples = 6\nvalue = [2, 4]", fillcolor="#399de57f"] ;
43 -> 44 ;
45 [label="gini = 0.375\nsamples = 8\nvalue = [9, 3]", fillcolor="#e58139aa"] ;
43 -> 45 ;
46 [label="Race <= 1.5\ngini = 0.38\nsamples = 170\nvalue = [71, 207]", fillcolor="#399de5a8"] ;
40 -> 46 ;
47 [label="Age at Diagnosis <= 57.5\ngini = 0.5\nsamples = 8\nvalue = [6, 6]", fillcolor="#e5813900"] ;
46 -> 47 ;
48 [label="gini = 0.375\nsamples = 5\nvalue = [6, 2]", fillcolor="#e58139aa"] ;
47 -> 48 ;
49 [label="gini = 0.0\nsamples = 3\nvalue = [0, 4]", fillcolor="#399de5ff"] ;
47 -> 49 ;
50 [label="Stage <= 3.5\ngini = 0.369\nsamples = 162\nvalue = [65, 201]", fillcolor="#399de5ad"] ;
46 -> 50 ;
51 [label="gini = 0.325\nsamples = 144\nvalue = [49, 191]", fillcolor="#399de5be"] ;
50 -> 51 ;
52 [label="gini = 0.473\nsamples = 18\nvalue = [16, 10]", fillcolor="#e5813960"] ;
50 -> 52 ;
}