digraph Tree {
node [shape=box, style="filled, rounded", color="black", fontname=helvetica] ;
edge [fontname=helvetica] ;
0 [label="Stage <= 2.5\ngini = 0.346\nsamples = 1528\nvalue = [533, 1862]", fillcolor="#399de5b6"] ;
1 [label="ER Status <= 1.5\ngini = 0.239\nsamples = 1085\nvalue = [235, 1455]", fillcolor="#399de5d6"] ;
0 -> 1 [labeldistance=2.5, labelangle=45, headlabel="True"] ;
2 [label="Menopause Status <= 1.5\ngini = 0.21\nsamples = 730\nvalue = [134, 990]", fillcolor="#399de5dc"] ;
1 -> 2 ;
3 [label="Age at Diagnosis <= 33.5\ngini = 0.14\nsamples = 319\nvalue = [36, 439]", fillcolor="#399de5ea"] ;
2 -> 3 ;
4 [label="CERB2 Status <= 2.5\ngini = 0.444\nsamples = 18\nvalue = [8, 16]", fillcolor="#399de57f"] ;
3 -> 4 ;
5 [label="gini = 0.375\nsamples = 15\nvalue = [5, 15]", fillcolor="#399de5aa"] ;
4 -> 5 ;
6 [label="gini = 0.375\nsamples = 3\nvalue = [3, 1]", fillcolor="#e58139aa"] ;
4 -> 6 ;
7 [label="Chemotherapy <= 0.5\ngini = 0.116\nsamples = 301\nvalue = [28, 423]", fillcolor="#399de5ee"] ;
3 -> 7 ;
8 [label="gini = 0.077\nsamples = 128\nvalue = [8, 192]", fillcolor="#399de5f4"] ;
7 -> 8 ;
9 [label="gini = 0.147\nsamples = 173\nvalue = [20, 231]", fillcolor="#399de5e9"] ;
7 -> 9 ;
10 [label="Age at Diagnosis <= 63.5\ngini = 0.256\nsamples = 411\nvalue = [98, 551]", fillcolor="#399de5d2"] ;
2 -> 10 ;
11 [label="Race <= 1.5\ngini = 0.222\nsamples = 253\nvalue = [51, 350]", fillcolor="#399de5da"] ;
10 -> 11 ;
12 [label="gini = 0.287\nsamples = 47\nvalue = [12, 57]", fillcolor="#399de5c9"] ;
11 -> 12 ;
13 [label="gini = 0.207\nsamples = 206\nvalue = [39, 293]", fillcolor="#399de5dd"] ;
11 -> 13 ;
14 [label="Location <= 1.5\ngini = 0.307\nsamples = 158\nvalue = [47, 201]", fillcolor="#399de5c3"] ;
10 -> 14 ;
15 [label="gini = 0.399\nsamples = 82\nvalue = [36, 95]", fillcolor="#399de59e"] ;
14 -> 15 ;
16 [label="gini = 0.17\nsamples = 76\nvalue = [11, 106]", fillcolor="#399de5e5"] ;
14 -> 16 ;
17 [label="Race <= 3.0\ngini = 0.293\nsamples = 355\nvalue = [101, 465]", fillcolor="#399de5c8"] ;
1 -> 17 ;
18 [label="Pri Rx <= 1.5\ngini = 0.294\nsamples = 354\nvalue = [101, 463]", fillcolor="#399de5c7"] ;
17 -> 18 ;
19 [label="Location <= 1.5\ngini = 0.298\nsamples = 348\nvalue = [101, 454]", fillcolor="#399de5c6"] ;
18 -> 19 ;
20 [label="gini = 0.377\nsamples = 191\nvalue = [78, 232]", fillcolor="#399de5a9"] ;
19 -> 20 ;
21 [label="gini = 0.17\nsamples = 157\nvalue = [23, 222]", fillcolor="#399de5e5"] ;
19 -> 21 ;
22 [label="gini = 0.0\nsamples = 6\nvalue = [0, 9]", fillcolor="#399de5ff"] ;
18 -> 22 ;
23 [label="gini = 0.0\nsamples = 1\nvalue = [0, 2]", fillcolor="#399de5ff"] ;
17 -> 23 ;
24 [label="Surgery Type <= 1.5\ngini = 0.488\nsamples = 443\nvalue = [298, 407]", fillcolor="#399de544"] ;
0 -> 24 [labeldistance=2.5, labelangle=-45, headlabel="False"] ;
25 [label="Location <= 1.5\ngini = 0.493\nsamples = 401\nvalue = [281, 359]", fillcolor="#399de537"] ;
24 -> 25 ;
26 [label="Stage <= 3.5\ngini = 0.494\nsamples = 253\nvalue = [220, 176]", fillcolor="#e5813933"] ;
25 -> 26 ;
27 [label="Age at Diagnosis <= 69.5\ngini = 0.5\nsamples = 212\nvalue = [172, 165]", fillcolor="#e581390a"] ;
26 -> 27 ;
28 [label="gini = 0.499\nsamples = 190\nvalue = [142, 156]", fillcolor="#399de517"] ;
27 -> 28 ;
29 [label="gini = 0.355\nsamples = 22\nvalue = [30, 9]", fillcolor="#e58139b3"] ;
27 -> 29 ;
30 [label="CERB2 Status <= 2.5\ngini = 0.303\nsamples = 41\nvalue = [48, 11]", fillcolor="#e58139c5"] ;
26 -> 30 ;
31 [label="gini = 0.223\nsamples = 33\nvalue = [41, 6]", fillcolor="#e58139da"] ;
30 -> 31 ;
32 [label="gini = 0.486\nsamples = 8\nvalue = [7, 5]", fillcolor="#e5813949"] ;
30 -> 32 ;
33 [label="Radiotherapy <= 0.5\ngini = 0.375\nsamples = 148\nvalue = [61, 183]", fillcolor="#399de5aa"] ;
25 -> 33 ;
34 [label="Family History <= 0.5\ngini = 0.49\nsamples = 24\nvalue = [18, 24]", fillcolor="#399de540"] ;
33 -> 34 ;
35 [label="gini = 0.498\nsamples = 21\nvalue = [18, 16]", fillcolor="#e581391c"] ;
34 -> 35 ;
36 [label="gini = 0.0\nsamples = 3\nvalue = [0, 8]", fillcolor="#399de5ff"] ;
34 -> 36 ;
37 [label="Location <= 2.5\ngini = 0.335\nsamples = 124\nvalue = [43, 159]", fillcolor="#399de5ba"] ;
33 -> 37 ;
38 [label="gini = 0.134\nsamples = 60\nvalue = [7, 90]", fillcolor="#399de5eb"] ;
37 -> 38 ;
39 [label="gini = 0.451\nsamples = 64\nvalue = [36, 69]", fillcolor="#399de57a"] ;
37 -> 39 ;
40 [label="Differentiation <= 1.5\ngini = 0.386\nsamples = 42\nvalue = [17, 48]", fillcolor="#399de5a5"] ;
24 -> 40 ;
41 [label="Age at Diagnosis <= 61.5\ngini = 0.269\nsamples = 15\nvalue = [4, 21]", fillcolor="#399de5ce"] ;
40 -> 41 ;
42 [label="Pri Rx <= 1.5\ngini = 0.159\nsamples = 14\nvalue = [2, 21]", fillcolor="#399de5e7"] ;
41 -> 42 ;
43 [label="gini = 0.091\nsamples = 12\nvalue = [1, 20]", fillcolor="#399de5f2"] ;
42 -> 43 ;
44 [label="gini = 0.5\nsamples = 2\nvalue = [1, 1]", fillcolor="#e5813900"] ;
42 -> 44 ;
45 [label="gini = 0.0\nsamples = 1\nvalue = [2, 0]", fillcolor="#e58139ff"] ;
41 -> 45 ;
46 [label="ER Status <= 1.5\ngini = 0.439\nsamples = 27\nvalue = [13, 27]", fillcolor="#399de584"] ;
40 -> 46 ;
47 [label="Stage <= 3.5\ngini = 0.358\nsamples = 20\nvalue = [7, 23]", fillcolor="#399de5b1"] ;
46 -> 47 ;
48 [label="gini = 0.403\nsamples = 17\nvalue = [7, 18]", fillcolor="#399de59c"] ;
47 -> 48 ;
49 [label="gini = 0.0\nsamples = 3\nvalue = [0, 5]", fillcolor="#399de5ff"] ;
47 -> 49 ;
50 [label="Race <= 1.5\ngini = 0.48\nsamples = 7\nvalue = [6, 4]", fillcolor="#e5813955"] ;
46 -> 50 ;
51 [label="gini = 0.0\nsamples = 2\nvalue = [2, 0]", fillcolor="#e58139ff"] ;
50 -> 51 ;
52 [label="gini = 0.5\nsamples = 5\nvalue = [4, 4]", fillcolor="#e5813900"] ;
50 -> 52 ;
}