digraph Tree {
node [shape=box, style="filled, rounded", color="black", fontname=helvetica] ;
edge [fontname=helvetica] ;
0 [label="Diagnosis <= 2.5\ngini = 0.347\nsamples = 1507\nvalue = [536, 1859]", fillcolor="#399de5b5"] ;
1 [label="Pri Rx <= 1.5\ngini = 0.399\nsamples = 717\nvalue = [317, 833]", fillcolor="#399de59e"] ;
0 -> 1 [labeldistance=2.5, labelangle=45, headlabel="True"] ;
2 [label="Stage <= 1.5\ngini = 0.379\nsamples = 686\nvalue = [280, 824]", fillcolor="#399de5a8"] ;
1 -> 2 ;
3 [label="CERB2 Status <= 1.5\ngini = 0.162\nsamples = 220\nvalue = [32, 329]", fillcolor="#399de5e6"] ;
2 -> 3 ;
4 [label="Chemotherapy <= 0.5\ngini = 0.3\nsamples = 58\nvalue = [18, 80]", fillcolor="#399de5c6"] ;
3 -> 4 ;
5 [label="gini = 0.391\nsamples = 22\nvalue = [12, 33]", fillcolor="#399de5a2"] ;
4 -> 5 ;
6 [label="gini = 0.201\nsamples = 36\nvalue = [6, 47]", fillcolor="#399de5de"] ;
4 -> 6 ;
7 [label="ER Status <= 1.5\ngini = 0.101\nsamples = 162\nvalue = [14, 249]", fillcolor="#399de5f1"] ;
3 -> 7 ;
8 [label="gini = 0.066\nsamples = 127\nvalue = [7, 198]", fillcolor="#399de5f6"] ;
7 -> 8 ;
9 [label="gini = 0.212\nsamples = 35\nvalue = [7, 51]", fillcolor="#399de5dc"] ;
7 -> 9 ;
10 [label="Diagnosis <= 1.5\ngini = 0.445\nsamples = 466\nvalue = [248, 495]", fillcolor="#399de57f"] ;
2 -> 10 ;
11 [label="Laterality <= 1.5\ngini = 0.376\nsamples = 180\nvalue = [68, 203]", fillcolor="#399de5aa"] ;
10 -> 11 ;
12 [label="gini = 0.0\nsamples = 2\nvalue = [3, 0]", fillcolor="#e58139ff"] ;
11 -> 12 ;
13 [label="gini = 0.367\nsamples = 178\nvalue = [65, 203]", fillcolor="#399de5ad"] ;
11 -> 13 ;
14 [label="Laterality <= 1.5\ngini = 0.472\nsamples = 286\nvalue = [180, 292]", fillcolor="#399de562"] ;
10 -> 14 ;
15 [label="gini = 0.32\nsamples = 6\nvalue = [8, 2]", fillcolor="#e58139bf"] ;
14 -> 15 ;
16 [label="gini = 0.467\nsamples = 280\nvalue = [172, 290]", fillcolor="#399de568"] ;
14 -> 16 ;
17 [label="Stage <= 2.5\ngini = 0.315\nsamples = 31\nvalue = [37, 9]", fillcolor="#e58139c1"] ;
1 -> 17 ;
18 [label="gini = 0.0\nsamples = 1\nvalue = [0, 2]", fillcolor="#399de5ff"] ;
17 -> 18 ;
19 [label="Age at Diagnosis <= 59.0\ngini = 0.268\nsamples = 30\nvalue = [37, 7]", fillcolor="#e58139cf"] ;
17 -> 19 ;
20 [label="Surgery Type <= 1.5\ngini = 0.214\nsamples = 28\nvalue = [36, 5]", fillcolor="#e58139dc"] ;
19 -> 20 ;
21 [label="gini = 0.18\nsamples = 27\nvalue = [36, 4]", fillcolor="#e58139e3"] ;
20 -> 21 ;
22 [label="gini = 0.0\nsamples = 1\nvalue = [0, 1]", fillcolor="#399de5ff"] ;
20 -> 22 ;
23 [label="Race <= 1.5\ngini = 0.444\nsamples = 2\nvalue = [1, 2]", fillcolor="#399de57f"] ;
19 -> 23 ;
24 [label="gini = 0.0\nsamples = 1\nvalue = [1, 0]", fillcolor="#e58139ff"] ;
23 -> 24 ;
25 [label="gini = 0.0\nsamples = 1\nvalue = [0, 2]", fillcolor="#399de5ff"] ;
23 -> 25 ;
26 [label="Axillary Dissection <= 2.5\ngini = 0.29\nsamples = 790\nvalue = [219, 1026]", fillcolor="#399de5c9"] ;
0 -> 26 [labeldistance=2.5, labelangle=-45, headlabel="False"] ;
27 [label="Race <= 1.5\ngini = 0.318\nsamples = 694\nvalue = [216, 873]", fillcolor="#399de5c0"] ;
26 -> 27 ;
28 [label="Surgery Type <= 1.5\ngini = 0.405\nsamples = 111\nvalue = [52, 132]", fillcolor="#399de59b"] ;
27 -> 28 ;
29 [label="Age at Diagnosis <= 31.5\ngini = 0.455\nsamples = 78\nvalue = [47, 87]", fillcolor="#399de575"] ;
28 -> 29 ;
30 [label="gini = 0.245\nsamples = 4\nvalue = [6, 1]", fillcolor="#e58139d4"] ;
29 -> 30 ;
31 [label="gini = 0.437\nsamples = 74\nvalue = [41, 86]", fillcolor="#399de585"] ;
29 -> 31 ;
32 [label="Age at Diagnosis <= 47.0\ngini = 0.18\nsamples = 33\nvalue = [5, 45]", fillcolor="#399de5e3"] ;
28 -> 32 ;
33 [label="gini = 0.391\nsamples = 11\nvalue = [4, 11]", fillcolor="#399de5a2"] ;
32 -> 33 ;
34 [label="gini = 0.056\nsamples = 22\nvalue = [1, 34]", fillcolor="#399de5f8"] ;
32 -> 34 ;
35 [label="Diagnosis <= 4.5\ngini = 0.297\nsamples = 583\nvalue = [164, 741]", fillcolor="#399de5c7"] ;
27 -> 35 ;
36 [label="Stage <= 2.5\ngini = 0.293\nsamples = 581\nvalue = [161, 741]", fillcolor="#399de5c8"] ;
35 -> 36 ;
37 [label="gini = 0.169\nsamples = 399\nvalue = [58, 563]", fillcolor="#399de5e5"] ;
36 -> 37 ;
38 [label="gini = 0.464\nsamples = 182\nvalue = [103, 178]", fillcolor="#399de56b"] ;
36 -> 38 ;
39 [label="gini = 0.0\nsamples = 2\nvalue = [3, 0]", fillcolor="#e58139ff"] ;
35 -> 39 ;
40 [label="Race <= 1.5\ngini = 0.038\nsamples = 96\nvalue = [3, 153]", fillcolor="#399de5fa"] ;
26 -> 40 ;
41 [label="gini = 0.0\nsamples = 16\nvalue = [0, 25]", fillcolor="#399de5ff"] ;
40 -> 41 ;
42 [label="PR Status <= 1.5\ngini = 0.045\nsamples = 80\nvalue = [3, 128]", fillcolor="#399de5f9"] ;
40 -> 42 ;
43 [label="gini = 0.0\nsamples = 49\nvalue = [0, 81]", fillcolor="#399de5ff"] ;
42 -> 43 ;
44 [label="Laterality <= 2.5\ngini = 0.113\nsamples = 31\nvalue = [3, 47]", fillcolor="#399de5ef"] ;
42 -> 44 ;
45 [label="gini = 0.337\nsamples = 11\nvalue = [3, 11]", fillcolor="#399de5b9"] ;
44 -> 45 ;
46 [label="gini = 0.0\nsamples = 20\nvalue = [0, 36]", fillcolor="#399de5ff"] ;
44 -> 46 ;
}