digraph Tree {
node [shape=box, style="filled, rounded", color="black", fontname=helvetica] ;
edge [fontname=helvetica] ;
0 [label="UMSCUMCC <= 1.5\ngini = 0.355\nsamples = 1517\nvalue = [552, 1843]", fillcolor="#399de5b3"] ;
1 [label="Radiotherapy <= 0.5\ngini = 0.459\nsamples = 763\nvalue = [426, 766]", fillcolor="#399de571"] ;
0 -> 1 [labeldistance=2.5, labelangle=45, headlabel="True"] ;
2 [label="STAGEAJCC6 <= 2.5\ngini = 0.432\nsamples = 289\nvalue = [143, 310]", fillcolor="#399de589"] ;
1 -> 2 ;
3 [label="Classification <= 1.5\ngini = 0.359\nsamples = 235\nvalue = [87, 284]", fillcolor="#399de5b1"] ;
2 -> 3 ;
4 [label="gini = 0.0\nsamples = 8\nvalue = [0, 12]", fillcolor="#399de5ff"] ;
3 -> 4 ;
5 [label="ER_status <= 1.5\ngini = 0.367\nsamples = 227\nvalue = [87, 272]", fillcolor="#399de5ad"] ;
3 -> 5 ;
6 [label="gini = 0.348\nsamples = 151\nvalue = [52, 180]", fillcolor="#399de5b5"] ;
5 -> 6 ;
7 [label="gini = 0.399\nsamples = 76\nvalue = [35, 92]", fillcolor="#399de59e"] ;
5 -> 7 ;
8 [label="Pri_Rx <= 2.5\ngini = 0.433\nsamples = 54\nvalue = [56, 26]", fillcolor="#e5813989"] ;
2 -> 8 ;
9 [label="STAGEAJCC6 <= 3.5\ngini = 0.416\nsamples = 51\nvalue = [55, 23]", fillcolor="#e5813994"] ;
8 -> 9 ;
10 [label="gini = 0.484\nsamples = 33\nvalue = [30, 21]", fillcolor="#e581394d"] ;
9 -> 10 ;
11 [label="gini = 0.137\nsamples = 18\nvalue = [25, 2]", fillcolor="#e58139eb"] ;
9 -> 11 ;
12 [label="Age_at_dx <= 65.5\ngini = 0.375\nsamples = 3\nvalue = [1, 3]", fillcolor="#399de5aa"] ;
8 -> 12 ;
13 [label="gini = 0.0\nsamples = 1\nvalue = [1, 0]", fillcolor="#e58139ff"] ;
12 -> 13 ;
14 [label="gini = 0.0\nsamples = 2\nvalue = [0, 3]", fillcolor="#399de5ff"] ;
12 -> 14 ;
15 [label="Nationality <= 1.5\ngini = 0.473\nsamples = 474\nvalue = [283, 456]", fillcolor="#399de561"] ;
1 -> 15 ;
16 [label="diagnosis <= 1.5\ngini = 0.474\nsamples = 471\nvalue = [283, 450]", fillcolor="#399de55f"] ;
15 -> 16 ;
17 [label="Marital_status <= 0.5\ngini = 0.386\nsamples = 96\nvalue = [40, 113]", fillcolor="#399de5a5"] ;
16 -> 17 ;
18 [label="gini = 0.291\nsamples = 19\nvalue = [6, 28]", fillcolor="#399de5c8"] ;
17 -> 18 ;
19 [label="gini = 0.408\nsamples = 77\nvalue = [34, 85]", fillcolor="#399de599"] ;
17 -> 19 ;
20 [label="Axill_dissect <= 2.5\ngini = 0.487\nsamples = 375\nvalue = [243, 337]", fillcolor="#399de547"] ;
16 -> 20 ;
21 [label="gini = 0.495\nsamples = 349\nvalue = [243, 294]", fillcolor="#399de52c"] ;
20 -> 21 ;
22 [label="gini = 0.0\nsamples = 26\nvalue = [0, 43]", fillcolor="#399de5ff"] ;
20 -> 22 ;
23 [label="gini = 0.0\nsamples = 3\nvalue = [0, 6]", fillcolor="#399de5ff"] ;
15 -> 23 ;
24 [label="Age_at_dx <= 74.5\ngini = 0.188\nsamples = 754\nvalue = [126, 1077]", fillcolor="#399de5e1"] ;
0 -> 24 [labeldistance=2.5, labelangle=-45, headlabel="False"] ;
25 [label="STAGEAJCC6 <= 2.5\ngini = 0.173\nsamples = 719\nvalue = [110, 1042]", fillcolor="#399de5e4"] ;
24 -> 25 ;
26 [label="Radiotherapy <= 0.5\ngini = 0.1\nsamples = 555\nvalue = [47, 841]", fillcolor="#399de5f1"] ;
25 -> 26 ;
27 [label="diagnosis <= 3.0\ngini = 0.079\nsamples = 230\nvalue = [15, 350]", fillcolor="#399de5f4"] ;
26 -> 27 ;
28 [label="gini = 0.128\nsamples = 99\nvalue = [12, 163]", fillcolor="#399de5ec"] ;
27 -> 28 ;
29 [label="gini = 0.031\nsamples = 131\nvalue = [3, 187]", fillcolor="#399de5fb"] ;
27 -> 29 ;
30 [label="diagnosis <= 3.0\ngini = 0.115\nsamples = 325\nvalue = [32, 491]", fillcolor="#399de5ee"] ;
26 -> 30 ;
31 [label="gini = 0.204\nsamples = 137\nvalue = [26, 199]", fillcolor="#399de5de"] ;
30 -> 31 ;
32 [label="gini = 0.039\nsamples = 188\nvalue = [6, 292]", fillcolor="#399de5fa"] ;
30 -> 32 ;
33 [label="STAGEAJCC6 <= 3.5\ngini = 0.363\nsamples = 164\nvalue = [63, 201]", fillcolor="#399de5af"] ;
25 -> 33 ;
34 [label="ER_status <= 1.5\ngini = 0.329\nsamples = 143\nvalue = [48, 183]", fillcolor="#399de5bc"] ;
33 -> 34 ;
35 [label="gini = 0.275\nsamples = 96\nvalue = [25, 127]", fillcolor="#399de5cd"] ;
34 -> 35 ;
36 [label="gini = 0.413\nsamples = 47\nvalue = [23, 56]", fillcolor="#399de596"] ;
34 -> 36 ;
37 [label="Age_at_dx <= 41.5\ngini = 0.496\nsamples = 21\nvalue = [15, 18]", fillcolor="#399de52a"] ;
33 -> 37 ;
38 [label="gini = 0.0\nsamples = 5\nvalue = [0, 9]", fillcolor="#399de5ff"] ;
37 -> 38 ;
39 [label="gini = 0.469\nsamples = 16\nvalue = [15, 9]", fillcolor="#e5813966"] ;
37 -> 39 ;
40 [label="Age_at_dx <= 77.5\ngini = 0.431\nsamples = 35\nvalue = [16, 35]", fillcolor="#399de58a"] ;
24 -> 40 ;
41 [label="Differentiation <= 1.5\ngini = 0.499\nsamples = 15\nvalue = [11, 12]", fillcolor="#399de515"] ;
40 -> 41 ;
42 [label="Laterality <= 2.5\ngini = 0.397\nsamples = 6\nvalue = [8, 3]", fillcolor="#e581399f"] ;
41 -> 42 ;
43 [label="gini = 0.48\nsamples = 4\nvalue = [2, 3]", fillcolor="#399de555"] ;
42 -> 43 ;
44 [label="gini = 0.0\nsamples = 2\nvalue = [6, 0]", fillcolor="#e58139ff"] ;
42 -> 44 ;
45 [label="UMSCUMCC <= 2.5\ngini = 0.375\nsamples = 9\nvalue = [3, 9]", fillcolor="#399de5aa"] ;
41 -> 45 ;
46 [label="gini = 0.0\nsamples = 5\nvalue = [0, 7]", fillcolor="#399de5ff"] ;
45 -> 46 ;
47 [label="gini = 0.48\nsamples = 4\nvalue = [3, 2]", fillcolor="#e5813955"] ;
45 -> 47 ;
48 [label="Age_at_dx <= 78.5\ngini = 0.293\nsamples = 20\nvalue = [5, 23]", fillcolor="#399de5c8"] ;
40 -> 48 ;
49 [label="gini = 0.0\nsamples = 3\nvalue = [0, 4]", fillcolor="#399de5ff"] ;
48 -> 49 ;
50 [label="PR_status <= 1.5\ngini = 0.33\nsamples = 17\nvalue = [5, 19]", fillcolor="#399de5bc"] ;
48 -> 50 ;
51 [label="gini = 0.142\nsamples = 9\nvalue = [1, 12]", fillcolor="#399de5ea"] ;
50 -> 51 ;
52 [label="gini = 0.463\nsamples = 8\nvalue = [4, 7]", fillcolor="#399de56d"] ;
50 -> 52 ;
}